{
    "layers": [
        {
            "name": "input",
            "type": "input",
            "size": 7
        },
        {
            "name": "blstm_level_0",
            "type": "blstm",
            "size": 10,
            "bias": 1
        },
        {
            "name": "blstm_level_1",
            "type": "blstm",
            "size": 10,
            "bias": 1
        },
        {
            "name": "blstm_level_2",
            "type": "blstm",
            "size": 10,
            "bias": 1
        },
        {
            "name": "output",
            "type": "feedforward_identity",
            "size": 7,
            "bias": 1
        },
        {
            "name": "postoutput",
            "type": "sse",
            "size": 7
        }
    ],
    "weights": {
        "blstm_level_0": {
            "input": [
                0.115486,
                0.0243051,
                0.107294,
                -0.105189,
                0.106774,
                0.0294565,
                0.171948,
                0.107478,
                -0.0938744,
                -0.137802,
                -0.228315,
                -0.0298098,
                0.0192916,
                -0.0409531,
                0.0682517,
                0.0853256,
                0.0784862,
                -0.0780245,
                0.0343022,
                -0.0492626,
                0.108762,
                0.0131825,
                0.0480663,
                0.0382725,
                -0.0826782,
                -0.0695495,
                0.146131,
                0.0500934,
                -0.0540674,
                -0.0635633,
                -0.0102796,
                0.219068,
                -0.100777,
                -0.0948099,
                0.00501473,
                0.0699355,
                0.0163108,
                0.0493818,
                0.0659909,
                0.136966,
                0.0291369,
                0.0299783,
                0.154918,
                0.177491,
                0.047173,
                -0.0927391,
                -0.204755,
                -0.0707508,
                -0.118992,
                0.0250984,
                -0.163136,
                -0.0665084,
                0.0815467,
                -0.039975,
                -0.0476126,
                0.0516362,
                -0.0700005,
                -0.0732738,
                0.00197482,
                -0.0898976,
                -0.0640008,
                -0.113495,
                0.0974947,
                -0.128328,
                0.0810915,
                0.140331,
                -0.0298642,
                0.0277134,
                -0.0956303,
                -0.100046,
                -0.187547,
                -0.0489908,
                -0.069956,
                -0.207369,
                0.142689,
                -0.0922489,
                -0.157124,
                -0.0464793,
                0.120848,
                -0.12364,
                0.0421022,
                0.0258299,
                0.0992049,
                -0.126396,
                -0.139068,
                -0.0696266,
                -0.132656,
                0.0285608,
                -0.00735412,
                0.0328184,
                0.0556386,
                0.168795,
                0.118282,
                0.178917,
                -0.0608856,
                -0.083645,
                -0.00064298,
                -0.00913748,
                0.0898371,
                0.131539,
                0.0618479,
                -0.158474,
                -0.0833989,
                -0.113282,
                -0.00855113,
                0.187374,
                0.0249643,
                -0.0876168,
                -0.0091271,
                0.115587,
                0.130787,
                -0.0648396,
                -0.166084,
                -0.0126927,
                0.126803,
                0.0578924,
                0.0133052,
                -0.0388475,
                -0.162444,
                0.113475,
                0.00202935,
                -0.0612959,
                -0.114935,
                0.173231,
                0.141383,
                -0.164865,
                -0.09681,
                -0.0034548,
                -0.163205,
                -0.156914,
                0.0427719,
                0.13877,
                0.0305567,
                -0.0645755,
                0.0455566,
                0.0489143,
                -0.04197,
                -0.0369053,
                0.0519391,
                0.0558184,
                0.0663168,
                -0.0516661,
                0.0854666,
                -0.115951,
                0.0356586,
                0.0686156,
                -0.0366501,
                0.154904,
                0.0833277,
                -0.0655108,
                0.0395862,
                0.0323259,
                0.0898305,
                0.0300127,
                0.120821,
                -0.055811,
                0.0912874,
                0.0305648,
                -0.0600086,
                0.0376372,
                -0.0346133,
                -0.107193,
                0.107638,
                0.0712023,
                -0.0249345,
                0.102367,
                -0.00790122,
                0.0103202,
                0.0144616,
                0.0754576,
                -0.0174129,
                0.0810329,
                -0.0951094,
                0.0124459,
                -0.121037,
                0.00788634,
                0.00289272,
                -0.0292424,
                0.0352637,
                -0.0246644,
                -0.0812186,
                0.0872729,
                -0.109798,
                0.0015499,
                -0.0788792,
                0.0183624,
                0.216131,
                -0.0965002,
                0.000894753,
                -0.0624173,
                0.121994,
                -0.0351677,
                0.0748503,
                0.0316597,
                -0.185541,
                0.114688,
                0.14388,
                -0.00466749,
                0.00370999,
                0.104968,
                0.0280061,
                0.0864673,
                0.0239936,
                -0.256058,
                0.00367264,
                0.00782235,
                -0.100694,
                -0.0418751,
                0.0714495,
                -0.0471345,
                0.100016,
                0.0760503,
                0.115602,
                -0.0457875,
                0.0108817,
                -0.0682719,
                -0.0100984,
                0.0771469,
                -0.220162,
                0.0404691,
                0.0170858,
                -0.0278471,
                0.0464007,
                0.0351991,
                -0.0441695,
                0.0741149,
                -0.0291391,
                0.00903196,
                0.0697238,
                -0.0681386,
                0.0933658,
                -0.0389591,
                0.0118468,
                -0.0151887,
                -0.112262,
                -0.0850814,
                0.19293,
                -0.00113091,
                -0.0192285,
                -0.0216528,
                -0.0639797,
                -0.136898,
                -0.244821,
                -0.0819154,
                -0.0722163,
                0.00894571,
                0.173535,
                -0.183551,
                -0.0267156,
                0.177143,
                0.0232826,
                0.115384,
                -0.0501277,
                -0.0473672,
                0.0998981,
                0.0693416,
                0.140714,
                -0.103477,
                0.117791,
                0.202766,
                0.0470196,
                0.0755979,
                0.14144,
                -0.0209746,
                -0.0916094,
                -0.0460629,
                -0.0350452,
                0.0565842,
                0.0244937,
                -0.0427247,
                0.0460755,
                0.00836762,
                -0.0834258,
                -0.084,
                -0.178102,
                -0.00307293,
                -0.0416216,
                -0.0381329,
                -0.111926,
                -0.179877
            ],
            "bias": [
                0.159751,
                0.0977167,
                -0.0603854,
                0.0555265,
                -0.054077,
                -0.114258,
                -0.0582548,
                -0.140598,
                0.0251066,
                0.126778,
                0.217947,
                -0.0792351,
                -0.0224168,
                -0.0408601,
                0.117187,
                0.0500294,
                -0.0425909,
                0.217181,
                -0.0908652,
                -0.107721,
                0.242947,
                0.0705711,
                0.211552,
                -0.068505,
                -0.0495775,
                -0.104891,
                -0.0162199,
                0.104403,
                0.20737,
                0.0724339,
                -0.0139157,
                0.121891,
                0.0561826,
                -0.0143758,
                0.122519,
                -0.083732,
                -0.0418999,
                0.0513101,
                -0.0537957,
                -0.0730397
            ],
            "internal": [
                0.108982,
                -0.174059,
                -0.350939,
                -0.162909,
                0.0964366,
                -0.121598,
                -0.180735,
                0.0316307,
                0.147416,
                0.0842221,
                0.0267657,
                0.243508,
                0.039182,
                0.0744334,
                -0.039938,
                -0.0645045,
                -0.17251,
                -0.0296943,
                0.143452,
                -0.226946,
                -0.0438096,
                0.0271502,
                -0.0398486,
                -0.10675,
                0.158087,
                0.0657035,
                -0.0278511,
                -0.0047786,
                0.14764,
                0.187476,
                -0.0633693,
                -0.199101,
                -0.0813476,
                -0.141198,
                0.0427669,
                -0.147609,
                -0.0108984,
                -0.022155,
                -0.2112,
                -0.0183151,
                -0.0282019,
                0.0281726,
                0.00802371,
                -0.104785,
                0.0409133,
                0.0148666,
                0.0364466,
                0.149007,
                -0.0340627,
                -0.119094,
                0.0615977,
                0.0484431,
                0.0652504,
                -0.27162,
                -0.0880021,
                0.131227,
                -0.0219646,
                0.00552836,
                -0.018707,
                -0.0420405,
                -0.00206143,
                -0.00261831,
                -0.0362148,
                0.0720325,
                -0.0594219,
                -0.124384,
                -0.278111,
                -0.0773632,
                -0.259827,
                -0.153674,
                -0.124338,
                -0.0501676,
                -0.0733702,
                -0.0227252,
                0.000321373,
                0.0388885,
                -0.0754778,
                0.0986524,
                0.0511634,
                0.104912,
                0.0843133,
                -0.0127498,
                0.119028,
                0.0593633,
                -0.0731504,
                -0.107283,
                -0.038855,
                -0.000201246,
                -0.0120149,
                -0.0148854,
                -0.0620128,
                -0.199108,
                -0.0173733,
                -0.0577977,
                0.0441574,
                -0.00178455,
                0.117057,
                -0.128578,
                0.135667,
                -0.00581635,
                0.210866,
                -0.0518725,
                -0.0213634,
                -0.0735103,
                -0.0413289,
                -0.0192243,
                -0.0206749,
                0.076994,
                0.0918049,
                0.160992,
                -0.205693,
                0.110446,
                -0.142239,
                -0.017709,
                -0.119093,
                0.129654,
                0.0735983,
                -0.19244,
                0.0897399,
                0.0373892,
                0.10692,
                -0.0631945,
                -0.0343675,
                -0.0369699,
                -0.00512548,
                0.00224528,
                0.000261501,
                -0.0497832,
                0.0967657,
                -0.0568596,
                -0.0619955,
                -0.0603249,
                -0.113796,
                -0.0832729,
                0.0443466,
                -0.132566,
                0.0180541,
                -0.0876724,
                0.130363,
                -0.165886,
                -0.101667,
                0.0885242,
                -0.10606,
                0.0589516,
                -0.0391153,
                -0.058479,
                0.0586109,
                0.0574467,
                0.14721,
                0.0124088,
                0.0265407,
                -0.0646509,
                -0.139077,
                -0.0372162,
                -0.0558706,
                0.213473,
                0.127033,
                -0.00100949,
                -0.0223195,
                0.0214393,
                0.147238,
                0.0116262,
                0.0887882,
                0.0111092,
                -0.147609,
                0.132665,
                -0.0835219,
                -0.105834,
                -0.00597028,
                0.0037025,
                0.0488127,
                -0.130393,
                -0.0489388,
                -0.0452937,
                -0.0552545,
                -0.0771419,
                -0.123764,
                -0.288248,
                -0.0778283,
                0.00554591,
                0.0624489,
                -0.0898205,
                0.179353,
                -0.121037,
                -0.0250038,
                0.0123429,
                0.00610001,
                -0.0928205,
                -0.138633,
                0.0723134,
                -0.0212531,
                0.0748126,
                0.0766245,
                0.0768517,
                -0.0274044,
                0.06035,
                -0.000277244,
                -0.109805,
                -0.0494687,
                0.132585,
                0.101911,
                0.11658,
                -0.00614441,
                0.0623373,
                -0.0286629,
                -0.150811,
                -0.148617,
                0.0651927,
                0.0274723,
                -0.072556,
                -0.05169,
                0.0977581,
                0.0582647,
                -0.0451056,
                -0.0637664,
                -0.0378003,
                -0.110309,
                -0.0270207,
                0.127532,
                0.0102216,
                0.179579,
                -0.0201568,
                -0.00725142,
                0.0589057,
                0.0271605,
                -0.0528543,
                -0.10713,
                -0.0625205,
                0.0981844,
                0.0622586
            ]
        },
        "blstm_level_1": {
            "input": [
                -0.00520863,
                -0.00841877,
                0.0298013,
                -0.0365848,
                0.144971,
                0.00656448,
                0.0900641,
                -0.0196569,
                -0.0978163,
                0.0460322,
                -0.194597,
                -0.0670089,
                -0.0685822,
                0.0707468,
                -0.101448,
                -0.0713976,
                0.0851634,
                -0.158696,
                0.111428,
                0.100081,
                0.0670163,
                0.1657,
                -0.030316,
                -0.107993,
                0.109817,
                0.15396,
                -0.0331999,
                0.173799,
                -0.0793263,
                0.101284,
                -0.058302,
                0.0618659,
                0.1489,
                0.16901,
                -0.0386776,
                -0.119384,
                -0.041375,
                0.0345033,
                0.00746685,
                0.109453,
                -0.0385807,
                0.214941,
                0.0302552,
                -0.158588,
                -0.0938221,
                -0.0476385,
                -0.111831,
                -0.0136787,
                0.0141633,
                -0.0944099,
                0.0926118,
                -0.0458904,
                -0.203037,
                0.22107,
                0.135668,
                -0.0179218,
                -0.110318,
                0.0750192,
                0.0575301,
                0.0384343,
                0.0240112,
                -0.0191706,
                0.217535,
                0.0809856,
                0.129284,
                0.318786,
                0.0253898,
                0.223724,
                -0.130215,
                -0.0680707,
                0.0453927,
                -0.0806009,
                -0.0800084,
                -0.0650303,
                0.0488258,
                -0.0101891,
                -0.0392468,
                0.0142388,
                -0.0140992,
                0.00410642,
                -0.126369,
                0.104174,
                0.0877009,
                -0.0369834,
                -0.139403,
                0.0676823,
                0.0785145,
                -0.0996308,
                -0.0991509,
                0.0288071,
                0.0632214,
                -0.13423,
                -0.0786002,
                0.106277,
                -0.0299575,
                -0.181384,
                0.142519,
                -0.0381103,
                -0.0213644,
                -0.0344707,
                -0.0278298,
                -0.0109567,
                -0.124177,
                -0.137453,
                -0.0487828,
                -0.0127019,
                0.0809704,
                0.1793,
                0.0707487,
                0.00881723,
                -0.0988989,
                -0.00178242,
                0.0607284,
                0.117658,
                -0.0719182,
                0.0133119,
                -0.0127935,
                0.0795015,
                -0.101828,
                -0.0571465,
                0.0853097,
                0.0352291,
                0.104782,
                0.0391908,
                -0.122945,
                -0.126775,
                0.000179466,
                0.083183,
                0.0276353,
                -0.0136189,
                0.0280997,
                -0.00773171,
                -0.0734318,
                -0.111393,
                -0.0717509,
                -0.036764,
                -0.0439577,
                -0.0509055,
                0.0226464,
                -0.0227686,
                0.0612718,
                0.139762,
                -0.00227763,
                0.0774008,
                0.0730119,
                0.0171039,
                -0.0761019,
                0.0830707,
                0.0649413,
                0.0260336,
                -0.046002,
                -0.122595,
                0.188418,
                0.19362,
                -0.0781941,
                0.00549494,
                0.0456315,
                0.102205,
                -0.127079,
                0.152699,
                0.176053,
                0.0171592,
                -0.126139,
                0.0404008,
                0.0179286,
                -0.144071,
                0.219557,
                0.0980904,
                -0.0211334,
                0.0996515,
                0.124309,
                -0.0171296,
                0.00243479,
                -0.0229181,
                -0.135849,
                0.067261,
                -0.062757,
                0.00216223,
                -0.0165271,
                0.0521371,
                -0.0558361,
                -0.0349409,
                0.072523,
                -0.0417845,
                0.0732982,
                -0.0811442,
                -0.208554,
                0.0212826,
                -0.107128,
                -0.154185,
                0.0721068,
                0.141777,
                0.117848,
                0.236081,
                -0.055041,
                0.143759,
                -0.0385531,
                0.0867287,
                -0.0864209,
                0.128327,
                0.146921,
                -0.0282992,
                0.035738,
                -0.124786,
                -0.0426908,
                0.0153904,
                0.169795,
                -0.0943677,
                0.162056,
                0.0426491,
                0.0453884,
                0.0401317,
                -0.00703813,
                -0.0495143,
                -0.0512383,
                -0.120999,
                -0.0119068,
                -0.0563759,
                -0.270956,
                -0.0371681,
                -0.0910065,
                0.105338,
                -0.118725,
                0.117447,
                -0.197005,
                0.0711173,
                0.0744832,
                0.0558307,
                0.120601,
                -0.260965,
                -0.0162604,
                0.108877,
                0.131992,
                0.0808917,
                0.0545022,
                0.247455,
                -0.157139,
                0.0891246,
                -0.14521,
                -0.0418401,
                0.0352477,
                -0.107182,
                0.0614282,
                0.0333981,
                0.030858,
                -0.0215645,
                0.202751,
                -0.0514433,
                0.120891,
                0.02773,
                0.0625181,
                0.00537508,
                -0.148125,
                -0.00826126,
                0.00977643,
                -0.0393494,
                -0.0990479,
                -0.18019,
                -0.0382839,
                0.0661723,
                0.0589188,
                -0.065844,
                -0.0234468,
                0.0904274,
                0.0555274,
                -0.0924084,
                0.124025,
                0.097844,
                0.00557413,
                0.0924028,
                0.106012,
                0.172641,
                -0.0818251,
                0.099694,
                -0.052746,
                0.14204,
                0.0876307,
                0.0945871,
                -0.120988,
                -0.0350825,
                -0.0256229,
                -0.258664,
                -0.0574598,
                0.054249,
                -0.014143,
                0.0721512,
                -0.036853,
                -0.152915,
                0.101629,
                -0.0366085,
                -0.0107104,
                0.00515828,
                0.0340444,
                -0.0195213,
                -0.0175247,
                -0.0234404,
                -0.0202252,
                -0.055873,
                0.097398,
                0.141358,
                -0.0691202,
                0.0605931,
                -0.0807378,
                0.0761821,
                -0.0642807,
                -0.0508529,
                0.0553218,
                0.118914,
                -0.0333227,
                -0.0553862,
                -0.0105072,
                -0.0483676,
                -0.0471874,
                -0.0415665,
                -0.0609727,
                -0.10511,
                -0.23526,
                -0.0763959,
                0.0315434,
                -0.0829361,
                0.0206102,
                -0.0143733,
                -0.208299,
                0.0144984,
                -0.131225,
                -0.0617664,
                0.115894,
                0.147868,
                -0.0565635,
                0.0112754,
                -0.0142912,
                0.0102199,
                -0.0134056,
                0.0416483,
                0.23388,
                0.0375484,
                0.185861,
                0.0747792,
                -0.0383677,
                0.0283184,
                0.198782,
                -0.0620495,
                -0.112181,
                0.161825,
                -0.0395909,
                0.0446349,
                0.0386569,
                0.0978395,
                0.137778,
                0.0497377,
                -0.0899038,
                -0.00481813,
                0.0123153,
                0.0322839,
                0.118644,
                -0.157862,
                -0.170517,
                0.0224322,
                -0.109693,
                -0.0654746,
                -0.0420328,
                0.0613132,
                -0.114509,
                0.0142407,
                0.0083517,
                0.111287,
                -0.225907,
                -0.0452467,
                0.17237,
                -0.0629925,
                0.0861857,
                -0.0638204,
                0.117295,
                -0.127931,
                0.115346,
                -0.0514698,
                0.109045,
                0.142484,
                0.0535345,
                0.0613924,
                0.156391,
                -0.0246256,
                -0.0673124,
                -0.0178358,
                -0.212988,
                0.0142055,
                -0.0832307,
                -0.171685,
                0.0371326,
                0.0835242,
                0.00662211,
                0.184757,
                0.113768,
                -0.100908,
                0.144375,
                -0.058544,
                -0.0248912,
                -0.109801,
                -0.159781,
                -0.147165
            ],
            "bias": [
                0.0502658,
                0.0552421,
                -0.00967491,
                -0.0362768,
                0.191332,
                -0.145524,
                -0.0704672,
                -0.0707523,
                -0.150477,
                -0.0549966,
                -0.118505,
                -0.149101,
                -0.0587106,
                -0.128746,
                -0.166614,
                0.157499,
                0.0542181,
                0.116077,
                -0.068529,
                -0.117754,
                -0.14828,
                -0.170731,
                0.0135896,
                0.0539211,
                0.135615,
                0.140045,
                0.173197,
                0.0683666,
                -0.085848,
                -0.000740168,
                0.206524,
                -0.0578933,
                -0.113077,
                -0.0577682,
                0.0244774,
                -0.0857262,
                -0.0820801,
                0.0624536,
                -0.199586,
                -0.0236442
            ],
            "internal": [
                0.123065,
                -0.163562,
                -0.0568382,
                -0.129655,
                0.173024,
                0.11544,
                0.0491272,
                -0.110886,
                -0.0554542,
                -0.0236204,
                0.129858,
                0.161384,
                -0.0703069,
                0.0293351,
                0.0420619,
                -0.0437981,
                0.00599127,
                -0.0557617,
                0.126704,
                -0.0590354,
                0.00975918,
                -0.0352752,
                0.0218427,
                0.0278303,
                0.0203307,
                -0.0240944,
                -0.0377482,
                -0.0125966,
                0.060506,
                0.128183,
                -0.0650315,
                0.125852,
                0.0955729,
                0.0245228,
                0.0872047,
                0.0174205,
                0.142034,
                -0.145157,
                -0.13826,
                -0.0400885,
                -0.0757225,
                0.131087,
                -0.0455084,
                -0.22484,
                -0.0659377,
                -0.0637976,
                -0.129819,
                0.00676431,
                -0.0112473,
                0.0741271,
                -0.0259443,
                0.0777024,
                -0.019697,
                -0.144345,
                -0.173686,
                0.159619,
                0.130145,
                -0.110725,
                -0.0374172,
                0.118666,
                0.125009,
                -0.0534961,
                -0.0358828,
                -0.0394236,
                -0.0201433,
                0.104371,
                0.157999,
                -0.118342,
                -0.156751,
                0.256828,
                -0.102816,
                -0.0989226,
                0.00639546,
                0.0238235,
                -0.17055,
                0.19917,
                0.134885,
                -0.0742452,
                -0.068952,
                0.046641,
                0.000300687,
                0.200964,
                0.0644312,
                -0.170008,
                -0.0285378,
                0.103542,
                -0.0398213,
                0.0448249,
                -0.00133245,
                -0.0739631,
                -0.214682,
                0.0371646,
                0.168396,
                0.0482643,
                -0.0774182,
                0.136217,
                0.0403669,
                -0.0326271,
                0.0296864,
                0.0184023,
                0.0986662,
                0.0595216,
                0.0321423,
                -0.0499401,
                -0.0537084,
                0.0190682,
                0.0377112,
                -0.0767946,
                -0.0857498,
                0.071612,
                -0.190428,
                0.0103604,
                -0.0188066,
                -0.0387343,
                0.029739,
                0.191498,
                -0.0661333,
                0.0974028,
                -0.100997,
                -0.0171641,
                0.027092,
                0.0383319,
                -0.0876934,
                0.029724,
                -0.176196,
                -0.108143,
                -0.00245442,
                0.0887433,
                -0.262701,
                0.072274,
                0.0320759,
                -0.0191397,
                -0.145542,
                0.0091539,
                0.0827493,
                0.135705,
                0.0489046,
                0.190954,
                0.10472,
                0.0334718,
                -0.0328508,
                0.0103553,
                0.00763341,
                -0.0449474,
                -0.0932399,
                0.023685,
                -0.0369779,
                0.062003,
                -0.0871113,
                0.00142179,
                0.000314563,
                -0.158482,
                0.0473488,
                0.234261,
                -0.0447154,
                0.0732276,
                0.045529,
                0.0485634,
                -0.140799,
                0.110319,
                0.10583,
                -0.0123764,
                -0.00552419,
                0.0237594,
                -0.110904,
                -0.214607,
                -0.10041,
                0.108145,
                -0.0839468,
                -0.0540741,
                -0.0285524,
                -0.0722979,
                -0.000348108,
                0.0873422,
                0.0298428,
                0.0477944,
                0.0516678,
                0.0196496,
                -0.0167091,
                -0.0312216,
                0.0540346,
                -0.0109791,
                0.0752772,
                -0.084003,
                -0.203576,
                0.0254836,
                0.0246122,
                -0.0937455,
                -0.00167713,
                0.143551,
                0.115528,
                0.0609868,
                0.0140278,
                0.0141128,
                0.0891629,
                -0.00618206,
                0.0710543,
                -0.026226,
                -0.0903818,
                0.0415744,
                0.102957,
                0.0578878,
                -0.105761,
                0.00187744,
                0.3262,
                0.021567,
                0.0754781,
                -0.0813069,
                0.0649729,
                0.087661,
                0.112994,
                -0.00280736,
                0.0735991,
                -0.116772,
                0.109738,
                0.182181,
                -0.0698226,
                0.0280374,
                0.0303944,
                -0.051128,
                -0.174237,
                -0.0308271,
                0.0278971,
                0.0635942,
                -0.0682506,
                0.0285072,
                -0.000503369,
                0.119438,
                -0.0340333,
                -0.0813674
            ]
        },
        "blstm_level_2": {
            "input": [
                0.0387935,
                -0.0647608,
                -0.00935142,
                -0.127221,
                0.0936709,
                0.0208468,
                0.0202169,
                0.035431,
                0.0398704,
                0.0364256,
                -0.0408636,
                -0.123364,
                0.0236743,
                -0.0101812,
                -0.0737111,
                -0.190401,
                0.0161335,
                0.0690913,
                0.0681308,
                0.0835333,
                0.155614,
                0.0534566,
                -0.276832,
                0.130088,
                0.0269599,
                0.0287802,
                0.148761,
                0.0744837,
                0.182559,
                -0.132233,
                0.119811,
                0.11515,
                -0.0262021,
                0.0584876,
                -0.112898,
                -0.0644789,
                0.061143,
                -0.0498312,
                -0.0346803,
                0.00317835,
                0.0796327,
                0.0548823,
                -0.166319,
                0.149873,
                -0.061867,
                0.0353404,
                0.0790265,
                -0.0550268,
                0.0562296,
                -0.0600577,
                0.0724891,
                -0.127118,
                -0.0606829,
                0.0181675,
                -0.100735,
                -0.0029385,
                -0.00977964,
                0.0894246,
                0.149529,
                0.220884,
                -0.0740095,
                0.160112,
                -0.179943,
                -0.0167171,
                -0.0178846,
                0.0973519,
                -0.0587612,
                0.130387,
                -0.0703832,
                0.0550385,
                0.144361,
                0.110611,
                -0.0379457,
                -0.0269835,
                -0.108995,
                0.0559704,
                0.0775844,
                0.0957242,
                -0.145759,
                -0.177458,
                0.107902,
                -0.0792414,
                -0.0302571,
                -0.0414961,
                0.0527052,
                0.0329365,
                -0.0575402,
                -0.0493396,
                -0.00497146,
                0.00965222,
                0.183905,
                -0.156629,
                -0.0625845,
                -0.062448,
                0.00385492,
                -0.0137499,
                0.0837984,
                -0.156825,
                -0.00836483,
                0.183413,
                -0.086788,
                -0.0185248,
                -0.0742267,
                -0.0584188,
                0.0611397,
                0.0682321,
                -0.0234506,
                -0.0149052,
                -0.0129065,
                -0.108729,
                -0.0958458,
                0.116337,
                -0.000962982,
                -0.103639,
                -0.00359712,
                -0.0075567,
                0.104868,
                -0.158141,
                -0.108393,
                0.12681,
                -0.0141229,
                0.003682,
                -0.0028387,
                0.148485,
                0.0869507,
                0.0210432,
                -0.0647431,
                0.0248684,
                0.0704998,
                0.0109973,
                -0.013183,
                -0.0449842,
                0.0100135,
                0.00481802,
                -0.0480631,
                0.105503,
                0.00188412,
                0.0297784,
                -0.0742399,
                0.0700171,
                -0.0746749,
                0.0056945,
                0.0652397,
                -0.0746971,
                0.10775,
                -0.224458,
                0.142803,
                -0.0622437,
                0.0299778,
                0.0870671,
                0.0040576,
                0.136367,
                -0.105933,
                0.18865,
                -0.0292182,
                -0.112331,
                0.042256,
                0.0486349,
                0.0092022,
                -0.143329,
                0.0351348,
                0.0142137,
                -0.0640476,
                0.0237679,
                0.0564854,
                0.0225079,
                0.0874712,
                -0.0989267,
                -0.199079,
                -0.0336751,
                -0.12929,
                -0.00381792,
                -0.0949084,
                -0.00233078,
                0.00450075,
                -0.06109,
                0.108664,
                -0.0715573,
                0.048354,
                0.0122468,
                -0.101378,
                0.0687097,
                0.110908,
                0.0346327,
                -0.0835651,
                -0.117936,
                -0.0792061,
                -0.153236,
                0.179598,
                0.0456006,
                0.177981,
                0.0892602,
                -0.0530837,
                -0.0448109,
                0.0613922,
                -0.0243661,
                0.127768,
                0.0615542,
                -0.037111,
                -0.0978624,
                -0.0565648,
                0.0860756,
                -0.0517713,
                0.201268,
                0.0233084,
                -0.00946644,
                0.0272833,
                -0.23429,
                -0.0310554,
                0.055305,
                -0.0102275,
                -0.0140691,
                -0.0964276,
                0.0705112,
                -0.067277,
                0.0770075,
                -0.047353,
                -0.194909,
                0.0604667,
                -0.0328527,
                0.0801418,
                0.0527733,
                0.014298,
                0.0219047,
                -0.00651805,
                0.172857,
                0.134115,
                0.145549,
                0.10703,
                0.105815,
                -0.106394,
                -0.078657,
                0.0339561,
                -0.0578991,
                0.122943,
                -0.0316531,
                0.0770881,
                -0.105155,
                -0.0792541,
                0.11505,
                -0.0828825,
                -0.0449376,
                -0.152803,
                0.0556668,
                -0.004811,
                -0.120775,
                -0.130139,
                -0.0174392,
                -0.137082,
                -0.0411991,
                -0.177165,
                -0.037943,
                0.0224352,
                -0.0496233,
                0.0176447,
                -0.190027,
                0.0873049,
                0.16485,
                0.0433223,
                -0.0387137,
                0.0717855,
                0.111109,
                -0.0424477,
                0.108772,
                -0.136979,
                -0.0608326,
                -0.067349,
                0.018607,
                -0.160657,
                -0.169562,
                0.111913,
                -0.0303118,
                -0.0931009,
                -0.0953802,
                0.0855874,
                -0.0153089,
                -0.0706146,
                -0.155708,
                0.15334,
                0.0673535,
                -0.1357,
                0.00918118,
                -0.132276,
                0.0120698,
                -0.0655197,
                0.198411,
                -0.007486,
                0.0127923,
                0.0402362,
                0.0090397,
                -0.0349874,
                0.059904,
                0.390982,
                0.0591451,
                -0.051179,
                0.00834667,
                0.04453,
                -0.00864795,
                0.0687017,
                0.00100493,
                0.175885,
                -0.106386,
                -0.0140167,
                0.00601782,
                -0.0454836,
                -0.14176,
                -0.0875543,
                -0.046703,
                -0.0677862,
                0.0784101,
                0.0324026,
                0.0599318,
                -0.0849321,
                0.0342365,
                0.00329644,
                -0.248488,
                0.0731402,
                0.066453,
                0.0701559,
                -0.0624318,
                0.183508,
                -0.114005,
                -0.0825443,
                -0.0910326,
                -0.0108077,
                -0.0153277,
                -0.124778,
                -0.0428856,
                -0.0606874,
                0.0641743,
                -0.0613634,
                0.0286792,
                0.123736,
                0.0605239,
                -0.0112446,
                0.0473161,
                0.0202092,
                -0.0526426,
                -0.0616853,
                0.00716807,
                0.106507,
                0.0375902,
                0.106519,
                -0.13452,
                0.166413,
                0.0112123,
                0.0359161,
                0.0429361,
                0.0917121,
                -0.0438251,
                -0.0128184,
                0.0291301,
                0.0304626,
                0.0758652,
                -0.211455,
                -0.0908074,
                -0.019634,
                0.145698,
                0.0295558,
                -0.0822089,
                0.13946,
                -0.0102042,
                -0.0817769,
                0.0501708,
                -0.0594242,
                -0.09499,
                -0.0428608,
                0.143357,
                -0.228768,
                -0.192225,
                0.114955,
                0.0844866,
                0.141763,
                -0.0394759,
                -0.0448475,
                0.160754,
                -0.0526757,
                0.0936905,
                0.00320649,
                -0.102057,
                0.0878717,
                -0.176403,
                -0.0794982,
                0.0455317,
                -0.16972,
                0.0393648,
                0.147592,
                0.104457,
                -0.117823,
                0.0687218,
                -0.00341635,
                -0.122021,
                0.170334,
                0.123713,
                -0.0259995,
                -0.082438,
                0.0938013,
                0.0358517,
                -0.0216243,
                0.0909209
            ],
            "bias": [
                -0.0369963,
                -0.00823044,
                0.130425,
                0.0325297,
                0.164906,
                0.0870274,
                0.0337247,
                0.165299,
                -0.141814,
                -0.0734257,
                0.203959,
                -0.175062,
                -0.122789,
                -0.113923,
                -0.0513304,
                -0.0259031,
                0.186438,
                0.200506,
                -0.0194962,
                0.151144,
                0.0640586,
                -0.196614,
                0.131624,
                0.117497,
                -0.128817,
                -0.0480981,
                -0.0193795,
                0.0348304,
                -0.13212,
                -0.0889184,
                0.109694,
                -0.0148282,
                -0.111399,
                -0.172967,
                0.0459625,
                0.080384,
                0.0702637,
                0.118226,
                0.0636381,
                0.0426438
            ],
            "internal": [
                -0.112843,
                -0.0806957,
                -0.0250561,
                0.115323,
                0.0731597,
                0.0330331,
                0.105536,
                0.199542,
                0.0324952,
                -0.104232,
                0.020253,
                -0.0819951,
                0.0114161,
                -0.00206653,
                -0.114451,
                -0.0984129,
                0.0412554,
                -0.0392881,
                0.100712,
                0.071961,
                -0.0513067,
                0.125642,
                0.126543,
                -0.00784868,
                -0.123552,
                0.0622217,
                -0.209287,
                -0.0424208,
                -0.0392345,
                0.20304,
                -0.0432264,
                0.0348036,
                0.0433521,
                0.0705603,
                0.0261929,
                -0.128071,
                0.0595951,
                -0.0662632,
                -0.0598548,
                0.0638668,
                -0.0655081,
                -0.13834,
                0.037909,
                0.190764,
                0.0588554,
                0.076047,
                -0.0651074,
                -0.0669646,
                0.0368289,
                -0.0859523,
                -0.00405797,
                0.0609474,
                -0.0311488,
                0.0477135,
                0.0846627,
                0.0354533,
                0.0303653,
                -0.0363166,
                -0.0225743,
                0.0214699,
                -0.000678723,
                0.00221839,
                0.159379,
                -0.104062,
                0.014663,
                -0.15517,
                -0.181229,
                0.0701165,
                0.0138072,
                -0.118931,
                0.025524,
                -0.0242434,
                0.130735,
                0.046392,
                -0.0683359,
                -0.0577531,
                0.00237382,
                0.0247985,
                0.0764185,
                -0.145317,
                -0.0617835,
                0.0183224,
                0.173704,
                -0.10219,
                0.0122842,
                -0.0705376,
                -0.135937,
                0.140109,
                0.0345689,
                0.0300963,
                0.277954,
                -0.112657,
                -0.00318253,
                0.198544,
                -0.052617,
                -0.192707,
                -0.0948343,
                0.0188496,
                -0.13519,
                -0.0998405,
                0.0104931,
                -0.0494661,
                0.0180124,
                0.106698,
                -0.0101983,
                -0.00282234,
                -0.0578355,
                -0.00135086,
                0.107175,
                -0.0966996,
                -0.0318245,
                0.045596,
                0.0821258,
                0.12966,
                0.0356681,
                0.161499,
                0.0604512,
                0.124872,
                -0.168083,
                -0.136813,
                -0.000695611,
                0.0858548,
                -0.0454641,
                -0.106429,
                -0.095261,
                -0.0660175,
                0.0276671,
                0.0343217,
                0.0416975,
                0.101444,
                -0.0999988,
                0.0807651,
                -0.0577907,
                0.0461908,
                -0.0301488,
                -0.0704797,
                -0.0602046,
                0.135786,
                -0.0567377,
                0.0874075,
                0.0150054,
                -0.0403739,
                -0.0856622,
                0.020629,
                0.0334122,
                -0.0931007,
                -0.112942,
                0.12033,
                0.190694,
                0.128882,
                0.00181321,
                0.103417,
                -0.135025,
                -0.112264,
                0.00327868,
                -0.0991318,
                0.0256915,
                0.00259825,
                0.0393181,
                0.0390035,
                -0.193088,
                0.0235655,
                -0.185705,
                0.0943408,
                -0.08042,
                -0.140092,
                0.0338874,
                -0.0778104,
                0.024302,
                0.0706354,
                -0.129515,
                0.0628313,
                0.0455739,
                0.0526621,
                0.0205405,
                0.0157618,
                -0.0743395,
                0.184987,
                0.0829157,
                0.109001,
                -0.0821258,
                -0.0848536,
                -0.0939576,
                0.0170869,
                -0.0433445,
                0.14861,
                -0.153984,
                -0.129664,
                0.0724919,
                0.116701,
                0.00204581,
                -0.0329406,
                -0.0338422,
                0.0993143,
                0.145293,
                0.0140882,
                -0.0861086,
                0.1852,
                -0.0647424,
                0.0638885,
                0.0440761,
                0.103348,
                0.0755564,
                -0.0566873,
                0.0468541,
                -0.00711615,
                -0.175362,
                0.0527222,
                -0.051075,
                -0.12515,
                -0.129176,
                -0.0118382,
                -0.0715419,
                -0.198519,
                -0.0355482,
                0.0791494,
                -0.0239257,
                -0.0899987,
                -0.0114478,
                -0.040299,
                -0.0178318,
                -0.0401913,
                -0.142388,
                0.00503503,
                0.105139,
                -0.130567,
                -0.0662717,
                -0.0537814,
                0.0867924,
                0.0653855
            ]
        },
        "output": {
            "input": [
                0.172585,
                -0.0885604,
                0.0737305,
                0.168281,
                0.287595,
                0.00513753,
                -0.170458,
                0.0296566,
                -0.00729334,
                -0.0331884,
                0.00969762,
                0.157657,
                -0.00868564,
                0.00226859,
                0.0948838,
                -0.00758616,
                -0.014156,
                -0.0390937,
                0.0936498,
                0.00526698,
                0.0594182,
                0.0129359,
                0.0258131,
                -0.0485318,
                0.146957,
                0.0434284,
                -0.00459711,
                -0.0776225,
                0.0554756,
                -0.0521048,
                0.039649,
                0.142762,
                -0.0269483,
                0.0390082,
                -0.00151027,
                -0.0453743,
                -0.0828952,
                -0.117961,
                0.0461733,
                0.0937239,
                -0.0792632,
                0.132818,
                0.1432,
                -0.0239454,
                -0.062169,
                -0.0296061,
                -0.087161,
                0.0395997,
                0.081557,
                0.0895239,
                -0.183975,
                0.13292,
                -0.0692046,
                -0.132036,
                0.00979041,
                -0.0676506,
                0.064616,
                -0.0257491,
                -0.274467,
                -0.180167,
                0.170321,
                0.0409465,
                -0.137708,
                -0.0801417,
                0.0379104,
                0.0472115,
                0.0799787,
                0.0387708,
                -0.0376396,
                -0.17551
            ],
            "bias": [
                -0.0272074,
                0.00726541,
                -0.000510681,
                0.0192634,
                0.0135152,
                -0.0201725,
                0.000303745
            ],
            "internal": []
        }
    }
}