{
    "layers": [
        {
            "name": "input",
            "type": "input",
            "size": 7
        },
        {
            "name": "blstm_level_0",
            "type": "blstm",
            "size": 2,
            "bias": 1
        },
        {
            "name": "blstm_level_1",
            "type": "blstm",
            "size": 2,
            "bias": 1
        },
        {
            "name": "output",
            "type": "feedforward_identity",
            "size": 7,
            "bias": 1
        },
        {
            "name": "postoutput",
            "type": "sse",
            "size": 7
        }
    ],
    "weights": {
        "blstm_level_0": {
            "input": [
                -0.0399904,
                -0.100616,
                0.035116,
                -0.11485,
                -0.00546953,
                -0.0761418,
                -0.0243527,
                0.192322,
                -0.0302212,
                0.18513,
                0.233683,
                -0.0868724,
                -0.00522301,
                0.0915797,
                0.0288197,
                -0.0804968,
                -0.0627127,
                0.133262,
                0.0379605,
                -0.115511,
                -0.0679619,
                0.0632456,
                -0.204261,
                0.0377695,
                -0.0524313,
                0.0274378,
                0.088348,
                0.183858,
                -0.0811577,
                -0.0625256,
                0.0679952,
                0.0268965,
                -0.103019,
                -0.10465,
                0.105189,
                -0.126279,
                -0.118058,
                -0.00496938,
                -0.0487655,
                -0.117839,
                -0.0366838,
                0.0253367,
                -0.0628861,
                0.0024844,
                -0.0535029,
                0.0145494,
                0.0170864,
                0.0952576,
                0.0416457,
                -0.057193,
                0.031046,
                -0.0457384,
                -0.024857,
                0.0625214,
                -0.179928,
                -0.026423
            ],
            "bias": [
                0.00549834,
                0.0953249,
                0.0285278,
                0.0621447,
                0.0311126,
                -0.0510997,
                -0.0585826,
                0.0134153
            ],
            "internal": [
                0.078025,
                -0.187379,
                0.00172015,
                0.116559,
                -0.0128805,
                -0.083681,
                -0.0530517,
                0.159767,
                0.0112795,
                0.00783862,
                0.0740186,
                0.114194,
                0.0479096,
                0.0701974
            ]
        },
        "blstm_level_1": {
            "input": [
                -0.143177,
                0.0840133,
                0.0311796,
                0.164767,
                0.0125732,
                0.128548,
                0.138621,
                -0.0315325,
                0.0714522,
                -0.0441862,
                -0.0530045,
                -0.116161,
                0.0365259,
                0.0772377,
                0.0472618,
                -0.0351271
            ],
            "bias": [
                -0.0458897,
                -0.00509828,
                0.0814713,
                -0.0388934,
                0.0675593,
                -0.157364,
                0.0552677,
                -0.0517104
            ],
            "internal": [
                -0.0367931,
                0.193394,
                -0.00736382,
                0.0386192,
                -0.122862,
                0.0369046,
                -0.0460043,
                -0.0264208,
                0.158147,
                0.00904037,
                -0.119945,
                -0.04092,
                -0.0222077,
                0.00383681
            ]
        },
        "output": {
            "input": [
                -2.18596e-05,
                0.0569919,
                -0.0606684,
                -0.0558434,
                0.0439998,
                0.0227633,
                0.0135262,
                0.033757,
                0.0980059,
                0.157156,
                0.106884,
                -0.0272739,
                0.159357,
                0.0779611
            ],
            "bias": [
                -0.00261324,
                -0.00188307,
                0.000106405,
                -0.000709648,
                0.00131371,
                -0.000305254,
                0.0041042
            ],
            "internal": []
        }
    }
}